0.8898877 <> -0.82949436 <> -0.7340274 <> 0.78171086 <> -0.31415737
-0.29973528 <> -0.7671673 <> -0.051789183 <> 0.10333061 <> -0.38338685
-0.19482613 <> 0.9453267 <> 0.13309242 <> 0.7305731 <> 0.58938646
-0.153343 <> 0.7704947 <> 0.22200842 <> -0.9306918 <> -0.967955
0.3564034 <> -0.91378355 <> 0.2719531 <> 0.50984424 <> 0.9064739
-0.71870416 <> 0.16750288 <> -0.8375921 <> -0.54448706 <> -0.36169744
0.9897133 <> 0.26526082 <> -0.38177738 <> -0.3124072 <> -0.7658113
0.71733195 <> 0.336344 <> -0.86110336 <> -0.54571927 <> -0.91934294
0.2686429 <> -0.6591825 <> 0.07325708 <> 0.49936524 <> -0.042807434
0.5763726 <> -0.38835204 <> 0.032635212 <> -0.29213926 <> -0.1587643
0.24981883 <> 0.6002629 <> -0.31576347 <> -0.7679899 <> -0.97690725
0.87410045 <> -0.8937093 <> -0.8216122 <> -0.8508594 <> 0.8805599
0.633499 <> 0.6498048 <> -0.21408063 <> 0.26889586 <> 0.826267
-0.5265585 <> -0.14184058 <> 0.16524518 <> -0.64784026 <> -0.26022086
-0.04477334 <> 0.08991323 <> 0.602167 <> -0.93179077 <> 0.83472186
